{
  "type": "NeuralNetwork",
  "sizes": [
    201,
    10,
    10,
    1
  ],
  "layers": [
    {
      "weights": [],
      "biases": []
    },
    {
      "weights": [
        [
          -0.13995586335659027,
          0.007327987812459469,
          0.04750167205929756,
          -0.18715853989124298,
          -0.19095155596733093,
          -0.09941081702709198,
          -0.05136565491557121,
          -0.12596534192562103,
          0.044470783323049545,
          0.0575254000723362,
          0.0996478945016861,
          -0.047239407896995544,
          0.024633143097162247,
          0.16113106906414032,
          0.1872272789478302,
          -0.15593570470809937,
          0.04650034382939339,
          -0.12119617313146591,
          -0.12087032198905945,
          -0.17138199508190155,
          0.15031355619430542,
          0.045523252338171005,
          0.19699250161647797,
          0.04382506012916565,
          -0.06925882399082184,
          -0.0007767460192553699,
          0.038300689309835434,
          -0.11118395626544952,
          -0.08063170313835144,
          -0.0628618448972702,
          -0.17901213467121124,
          -0.08922743797302246,
          0.13748517632484436,
          -0.11747413128614426,
          -0.1694742739200592,
          -0.19060131907463074,
          -0.014775014482438564,
          -0.19371603429317474,
          0.17211374640464783,
          0.14054609835147858,
          -0.03317445144057274,
          0.09032740443944931,
          -0.0629066452383995,
          0.17480848729610443,
          0.19161225855350494,
          -0.06967426836490631,
          -0.0583287850022316,
          0.0737481564283371,
          0.18707188963890076,
          -0.1463751196861267,
          0.180779829621315,
          0.004705511499196291,
          0.06484171003103256,
          -0.10309281945228577,
          -0.09898341447114944,
          -0.13491950929164886,
          -0.07451288402080536,
          0.028797131031751633,
          -0.09491606056690216,
          0.183558389544487,
          -0.04474664479494095,
          0.02201775088906288,
          -0.12875865399837494,
          0.09603067487478256,
          0.1487632691860199,
          0.128550723195076,
          0.037777379155159,
          -0.09655427187681198,
          -0.0908888503909111,
          0.10935165733098984,
          0.04328643158078194,
          -0.1105489656329155,
          -0.11396715044975281,
          0.00746262026950717,
          0.04801518842577934,
          0.2020663022994995,
          0.03081144578754902,
          0.19443809986114502,
          0.16510824859142303,
          0.06658878177404404,
          0.02832738310098648,
          0.027613405138254166,
          0.020007194951176643,
          -0.15356393158435822,
          0.010401708073914051,
          -0.11034895479679108,
          0.09571083635091782,
          0.1947525292634964,
          0.046873558312654495,
          -0.048813726752996445,
          -0.05299324914813042,
          0.17448881268501282,
          0.19251088798046112,
          0.12527672946453094,
          -0.008724422194063663,
          -0.014023897238075733,
          0.10266336053609848,
          -0.1380307525396347,
          -0.10938234627246857,
          -0.03907205909490585,
          0.06145540252327919,
          0.042118534445762634,
          -0.18103660643100739,
          0.06164637953042984,
          -0.047070927917957306,
          -0.1288939267396927,
          -0.0847041979432106,
          -0.07778669148683548,
          0.05185464769601822,
          0.1691487431526184,
          0.1344701200723648,
          0.07153773307800293,
          -0.15484681725502014,
          -0.06951577961444855,
          -0.004036624450236559,
          -0.06192745640873909,
          0.12847717106342316,
          -0.11857021600008011,
          0.14230765402317047,
          -0.0737324208021164,
          0.11508418619632721,
          0.09868427366018295,
          -0.08882555365562439,
          -0.022061849012970924,
          -0.09710416942834854,
          -0.10595956444740295,
          0.15674756467342377,
          0.07718704640865326,
          -0.10519431531429291,
          -0.06802733242511749,
          -0.034682951867580414,
          -0.049734991043806076,
          -0.06670714914798737,
          -0.19457802176475525,
          -0.12003736197948456,
          0.010277187451720238,
          -0.0069101168774068356,
          0.18550030887126923,
          0.020492957904934883,
          0.07888554781675339,
          -0.13254861533641815,
          -0.15684473514556885,
          -0.09459755569696426,
          0.03163370117545128,
          -0.030407091602683067,
          0.19368326663970947,
          -0.1575903743505478,
          0.014867681078612804,
          -0.06475168466567993,
          0.11517284065485,
          -0.136729896068573,
          0.029636399820446968,
          0.012283982709050179,
          -0.1054249107837677,
          0.0734243094921112,
          0.12128089368343353,
          -0.1517895758152008,
          -0.14461670815944672,
          0.13075006008148193,
          -0.03873179480433464,
          -0.0689091756939888,
          -0.05210278555750847,
          -0.006970240268856287,
          -0.17928718030452728,
          0.05434219539165497,
          -0.15328598022460938,
          -0.04306889697909355,
          0.18158237636089325,
          -0.002078478457406163,
          -0.1525731384754181,
          -0.1269666999578476,
          -0.14141027629375458,
          0.05164788290858269,
          -0.05886665731668472,
          0.03350836783647537,
          0.014245008118450642,
          0.07181128114461899,
          -0.1479126513004303,
          -0.087704136967659,
          -0.03169946372509003,
          -0.016041213646531105,
          -0.047956109046936035,
          -0.049017101526260376,
          -0.1783864051103592,
          -0.11069721728563309,
          0.1586737185716629,
          -0.10496354848146439,
          0.16274113953113556,
          -0.07004927098751068,
          0.040363091975450516,
          0.06312108039855957,
          0.05142005905508995,
          0.09481999278068542,
          -0.06706282496452332,
          -0.08417180180549622,
          -0.19775281846523285,
          0.11901257932186127,
          0.1436418890953064,
          0.1974077671766281,
          -0.06907380372285843,
          0.1736101508140564
        ],
        [
          0.036469798535108566,
          0.05353845655918121,
          0.18784473836421967,
          -0.15046176314353943,
          0.1622503697872162,
          -0.06663430482149124,
          0.0721857100725174,
          -0.04200801998376846,
          -0.12585006654262543,
          0.05602862313389778,
          0.14434044063091278,
          0.09091168642044067,
          0.150766521692276,
          0.04418765753507614,
          0.002754115266725421,
          0.0308087095618248,
          -0.0824102982878685,
          -0.10386501252651215,
          0.08425063639879227,
          -0.07824885100126266,
          -0.18267321586608887,
          0.15078440308570862,
          -0.12338592112064362,
          0.07356125861406326,
          -0.13658735156059265,
          0.033337172120809555,
          -0.0417606420814991,
          -0.03816772252321243,
          0.008769329637289047,
          -0.019028162583708763,
          0.018299752846360207,
          0.17570385336875916,
          -0.07156549394130707,
          0.1992102712392807,
          -0.08098165690898895,
          -0.07753370702266693,
          0.11383950710296631,
          -0.15842068195343018,
          -0.009790759533643723,
          0.1613938808441162,
          0.14354802668094635,
          0.1804334819316864,
          -0.03705913573503494,
          0.09612584114074707,
          0.15278105437755585,
          -0.07092973589897156,
          -0.08811771869659424,
          0.12466881424188614,
          -0.06727226823568344,
          -0.13178303837776184,
          -0.13283556699752808,
          -0.17781661450862885,
          -0.07099895924329758,
          0.1475018858909607,
          -0.06528659909963608,
          0.07576552778482437,
          0.0670914500951767,
          -0.010411265306174755,
          0.05639691650867462,
          0.12826430797576904,
          0.00008434923802269623,
          0.06353966146707535,
          0.09839864820241928,
          -0.17865914106369019,
          -0.05621487647294998,
          -0.015830939635634422,
          0.043871019035577774,
          0.14755427837371826,
          0.10401328653097153,
          -0.029976561665534973,
          0.15458005666732788,
          -0.13070426881313324,
          0.0864684134721756,
          -0.012324044480919838,
          -0.08745225518941879,
          0.1940946727991104,
          0.13357211649417877,
          0.16497932374477386,
          -0.06668689101934433,
          0.12799234688282013,
          0.15826039016246796,
          0.0102308988571167,
          -0.109499990940094,
          0.18122422695159912,
          0.013833903707563877,
          0.11555138975381851,
          0.10387235879898071,
          -0.14163833856582642,
          -0.0998372733592987,
          0.053712502121925354,
          0.08264405280351639,
          0.08803080022335052,
          0.09023281186819077,
          0.16622501611709595,
          -0.16847218573093414,
          -0.010243202559649944,
          -0.06237904727458954,
          0.19233934581279755,
          0.20413798093795776,
          -0.002759782364591956,
          -0.045121125876903534,
          -0.00940455961972475,
          -0.03720594570040703,
          0.014836830087006092,
          0.09853257983922958,
          -0.1355118751525879,
          -0.18823182582855225,
          -0.07498541474342346,
          0.11786394566297531,
          0.05877060070633888,
          -0.1824321448802948,
          -0.04787585511803627,
          0.1717226803302765,
          0.13870178163051605,
          -0.08852656930685043,
          0.19781413674354553,
          -0.16300176084041595,
          0.03839219734072685,
          -0.08128464967012405,
          -0.002976023592054844,
          -0.18452367186546326,
          -0.19433052837848663,
          0.07741419225931168,
          0.18674209713935852,
          0.18035167455673218,
          0.027889680117368698,
          0.0002315672900294885,
          -0.037727613002061844,
          -0.009565027430653572,
          0.059384409338235855,
          -0.12794487178325653,
          0.18838205933570862,
          0.0213472843170166,
          0.014415520243346691,
          -0.1828337460756302,
          -0.14079853892326355,
          -0.0447932593524456,
          -0.16436190903186798,
          0.14488919079303741,
          -0.1341644525527954,
          0.17565293610095978,
          -0.0562819205224514,
          0.036988746374845505,
          0.09022204577922821,
          -0.028131647035479546,
          0.007924303412437439,
          0.056275878101587296,
          -0.09275815635919571,
          0.06647227704524994,
          -0.16719384491443634,
          0.17004439234733582,
          -0.07327337563037872,
          -0.17904555797576904,
          0.0703849196434021,
          -0.0489635169506073,
          -0.04928943142294884,
          -0.12455687671899796,
          -0.08735392242670059,
          0.05828035995364189,
          0.1888013482093811,
          -0.027804268524050713,
          -0.0909392386674881,
          -0.06813599914312363,
          -0.005119306966662407,
          0.06296614557504654,
          0.09799785166978836,
          0.08538080751895905,
          -0.09066002070903778,
          -0.11224473267793655,
          0.00625234330072999,
          -0.1154174730181694,
          -0.03554876148700714,
          -0.08417893201112747,
          0.0712658241391182,
          0.14272674918174744,
          -0.1289036124944687,
          -0.1782684326171875,
          -0.043042950332164764,
          -0.10507708042860031,
          0.0022160999942570925,
          0.13225777447223663,
          0.11565829813480377,
          0.12344278395175934,
          0.05287540331482887,
          0.11680334806442261,
          -0.058278411626815796,
          0.0477604903280735,
          0.14550930261611938,
          0.17652462422847748,
          0.14324401319026947,
          -0.010018627159297466,
          -0.1289125233888626,
          -0.057431645691394806,
          -0.1565476655960083,
          -0.10420331358909607,
          0.0956389456987381,
          -0.0700094997882843,
          0.02717646211385727,
          -0.04025842249393463,
          0.17398181557655334,
          0.14601990580558777
        ],
        [
          0.0047261593863368034,
          -0.0949588268995285,
          0.05604178458452225,
          0.1275273710489273,
          0.022839784622192383,
          -0.10965012013912201,
          -0.1462060660123825,
          -0.19041234254837036,
          0.175079807639122,
          -0.17845240235328674,
          0.05123189464211464,
          -0.09487151354551315,
          0.0036158885341137648,
          0.13737770915031433,
          0.08515172451734543,
          -0.11647896468639374,
          0.10885646194219589,
          -0.16506119072437286,
          0.11064508557319641,
          0.004918604623526335,
          0.05190820246934891,
          0.1977633535861969,
          0.0980936661362648,
          -0.05445457249879837,
          0.1263277232646942,
          0.10248381644487381,
          -0.04847162961959839,
          0.19240835309028625,
          -0.0012310525635257363,
          -0.13267746567726135,
          0.16210715472698212,
          -0.01484617404639721,
          -0.07092776149511337,
          0.1410170942544937,
          -0.10558900237083435,
          0.03134259581565857,
          0.006450928747653961,
          0.16291972994804382,
          0.16779011487960815,
          -0.16594751179218292,
          -0.1619974672794342,
          -0.002940108999609947,
          0.17120780050754547,
          0.09121926128864288,
          -0.12152241915464401,
          0.15709160268306732,
          0.19141003489494324,
          -0.05340860038995743,
          0.05265844985842705,
          -0.190373957157135,
          0.1074414923787117,
          -0.07520397007465363,
          -0.012445866130292416,
          0.02880331315100193,
          -0.09020255506038666,
          -0.05017988756299019,
          -0.1739838868379593,
          -0.06833873689174652,
          -0.09132226556539536,
          0.13347174227237701,
          0.010630516335368156,
          -0.0892995223402977,
          0.16759397089481354,
          -0.07989829778671265,
          -0.1760740876197815,
          0.04395085945725441,
          -0.0071212551556527615,
          0.07002029567956924,
          -0.07407284528017044,
          -0.07111789286136627,
          -0.10411155968904495,
          0.16000333428382874,
          0.027684330940246582,
          -0.13477428257465363,
          -0.10073448717594147,
          -0.1509016901254654,
          -0.12403739243745804,
          -0.007634176407009363,
          0.1492668092250824,
          -0.07969717681407928,
          -0.1187768280506134,
          0.004840412177145481,
          0.10019948333501816,
          0.18016766011714935,
          -0.046380411833524704,
          -0.12672506272792816,
          0.16135431826114655,
          0.18576811254024506,
          -0.07568465173244476,
          -0.1581874042749405,
          0.05201655626296997,
          -0.06974658370018005,
          -0.030911259353160858,
          -0.009301475249230862,
          -0.07429705560207367,
          0.06720004975795746,
          0.13874095678329468,
          -0.17370755970478058,
          -0.047945015132427216,
          -0.04007137566804886,
          -0.13627053797245026,
          0.01171096321195364,
          0.08716783672571182,
          0.018418747931718826,
          0.08405498415231705,
          -0.09420918673276901,
          0.09510135650634766,
          -0.1121504157781601,
          -0.081386499106884,
          -0.08462992310523987,
          0.15644414722919464,
          -0.18147234618663788,
          -0.171820729970932,
          -0.1006150171160698,
          -0.05283461511135101,
          -0.07473159581422806,
          -0.05224752798676491,
          0.06635203957557678,
          0.10667558014392853,
          -0.05942302197217941,
          -0.14041529595851898,
          0.11138065904378891,
          -0.06216658279299736,
          0.17173945903778076,
          0.010714089497923851,
          -0.17536473274230957,
          -0.18203531205654144,
          -0.04235529154539108,
          0.04998490959405899,
          0.16533568501472473,
          0.1870739609003067,
          -0.004456518683582544,
          -0.003131084144115448,
          0.13063836097717285,
          0.02761089988052845,
          0.09790276736021042,
          -0.008557787165045738,
          0.11419548094272614,
          -0.1858799010515213,
          0.1255175620317459,
          -0.015744272619485855,
          -0.022299155592918396,
          0.1777048110961914,
          0.08719459921121597,
          0.07439861446619034,
          -0.08435501158237457,
          -0.1920480728149414,
          0.09685471653938293,
          -0.044610556215047836,
          -0.1624169796705246,
          0.16591088473796844,
          0.06141902133822441,
          -0.09462907165288925,
          0.007481781300157309,
          0.09055586904287338,
          0.1377263367176056,
          -0.18829506635665894,
          0.04489130899310112,
          -0.15918061137199402,
          -0.03820280358195305,
          0.16959631443023682,
          -0.10405241698026657,
          0.11043287068605423,
          0.16722741723060608,
          -0.04136878624558449,
          -0.030125798657536507,
          -0.12298522144556046,
          -0.16018123924732208,
          -0.16750934720039368,
          0.12994246184825897,
          -0.07682394981384277,
          -0.1100929006934166,
          0.1351410150527954,
          -0.002687371103093028,
          -0.06800705939531326,
          0.1260378509759903,
          0.07506589591503143,
          -0.14000026881694794,
          0.002925347303971648,
          0.0857793465256691,
          0.1892242282629013,
          0.14693720638751984,
          -0.16404388844966888,
          0.06117086485028267,
          0.19564057886600494,
          -0.03548623248934746,
          -0.09287906438112259,
          -0.14130158722400665,
          -0.08430749177932739,
          0.18550194799900055,
          -0.18962162733078003,
          0.16191256046295166,
          0.04414744675159454,
          -0.06926731765270233,
          0.128911554813385,
          0.14550834894180298,
          -0.170949786901474,
          0.1619875729084015,
          -0.10531052947044373,
          0.09725476801395416,
          -0.02746562846004963
        ],
        [
          -0.02564956061542034,
          0.06404732167720795,
          0.19410106539726257,
          0.17723259329795837,
          0.19530625641345978,
          0.019473403692245483,
          0.16239015758037567,
          -0.1973797082901001,
          0.12491102516651154,
          0.1533430814743042,
          0.1376798003911972,
          0.1011090874671936,
          0.19460640847682953,
          -0.01971323788166046,
          0.05132870748639107,
          -0.1969330906867981,
          -0.023762809112668037,
          -0.09530546516180038,
          -0.1217707097530365,
          -0.00784163735806942,
          0.09703507274389267,
          0.11818588525056839,
          0.04160090163350105,
          -0.1007872223854065,
          0.059516679495573044,
          -0.09570246189832687,
          0.029552683234214783,
          0.15834175050258636,
          -0.19954036176204681,
          -0.06110008433461189,
          0.018255172297358513,
          -0.1992885172367096,
          0.012184136547148228,
          0.08685118705034256,
          -0.09346219897270203,
          -0.04619908332824707,
          -0.057831138372421265,
          -0.010469612665474415,
          0.17349663376808167,
          -0.11072099208831787,
          0.19280964136123657,
          -0.1348806470632553,
          0.12534961104393005,
          -0.12574076652526855,
          -0.10102710127830505,
          -0.12760266661643982,
          -0.07353825867176056,
          -0.02317175269126892,
          0.012041440233588219,
          -0.10791301727294922,
          -0.12930992245674133,
          -0.07698624581098557,
          -0.06479036808013916,
          -0.16158868372440338,
          -0.17561641335487366,
          0.09588228911161423,
          0.1573781669139862,
          0.009439576417207718,
          0.014223502017557621,
          -0.1667480319738388,
          -0.14474384486675262,
          -0.15640148520469666,
          0.1313052475452423,
          0.13592961430549622,
          0.07173588126897812,
          0.04545559734106064,
          0.06373243033885956,
          -0.1911313682794571,
          0.17330841720104218,
          -0.18697617948055267,
          0.1921476423740387,
          -0.05568471923470497,
          0.05536103621125221,
          -0.025019416585564613,
          -0.1967105120420456,
          -0.11502966284751892,
          0.16432209312915802,
          0.17883989214897156,
          -0.08625991642475128,
          -0.030451517552137375,
          -0.17238958179950714,
          -0.020967606455087662,
          -0.1538330465555191,
          -0.12596942484378815,
          -0.10254218429327011,
          -0.03886011242866516,
          0.10048303008079529,
          -0.1283658742904663,
          0.13556061685085297,
          -0.1665249764919281,
          -0.13774374127388,
          -0.02161373943090439,
          -0.10667972266674042,
          0.1833008974790573,
          -0.1812441051006317,
          -0.01325883250683546,
          -0.13939280807971954,
          -0.1427997648715973,
          -0.14214974641799927,
          0.1252439171075821,
          0.16094492375850677,
          -0.08344639837741852,
          0.09936919063329697,
          0.0134672150015831,
          -0.07659067958593369,
          0.17099516093730927,
          -0.10996497422456741,
          0.1630268543958664,
          -0.02322649583220482,
          0.198477104306221,
          -0.16479729115962982,
          -0.19617167115211487,
          0.0456695556640625,
          0.12636715173721313,
          -0.19126547873020172,
          0.09943083673715591,
          0.08641786128282547,
          0.11931392550468445,
          -0.1848011463880539,
          -0.12211722880601883,
          -0.03776276856660843,
          0.10313413292169571,
          -0.1289520412683487,
          0.11044064164161682,
          0.024525221437215805,
          -0.12732312083244324,
          -0.1887446790933609,
          -0.16240134835243225,
          0.04878530651330948,
          -0.1567663699388504,
          0.01882578618824482,
          -0.09662291407585144,
          -0.17963474988937378,
          0.08721333742141724,
          0.03695568069815636,
          0.13667340576648712,
          -0.0833285003900528,
          0.13361674547195435,
          0.09993622452020645,
          0.14962369203567505,
          -0.13429255783557892,
          0.15594592690467834,
          -0.07366034388542175,
          -0.015445386059582233,
          0.05614149942994118,
          0.15496574342250824,
          -0.1343705803155899,
          -0.11168327927589417,
          0.06510241329669952,
          -0.044771455228328705,
          -0.0680525153875351,
          -0.05618162453174591,
          -0.07662172615528107,
          -0.1000223234295845,
          0.03268752619624138,
          0.1440100371837616,
          -0.19850566983222961,
          0.0003296805080026388,
          -0.06153084337711334,
          0.13500173389911652,
          0.1523808240890503,
          0.1297212541103363,
          -0.08654921501874924,
          0.08102884888648987,
          0.15391017496585846,
          -0.1496783047914505,
          0.1228969618678093,
          0.10240776836872101,
          0.09334501624107361,
          0.056491196155548096,
          0.11458668112754822,
          -0.17497794330120087,
          -0.0834340751171112,
          0.04724045842885971,
          -0.03504675254225731,
          -0.09136873483657837,
          -0.0076095121912658215,
          -0.08216492831707001,
          0.07560628652572632,
          -0.16509561240673065,
          0.11247579753398895,
          -0.03391214832663536,
          -0.13144151866436005,
          -0.15714962780475616,
          0.007391342427581549,
          0.06373363733291626,
          0.11751741915941238,
          -0.06896518915891647,
          -0.15851421654224396,
          0.19780515134334564,
          -0.16372348368167877,
          0.1790548413991928,
          0.06120379641652107,
          0.153720885515213,
          -0.004731176886707544,
          -0.151436910033226,
          -0.021183110773563385,
          0.1799677014350891,
          0.08480924367904663,
          -0.13965903222560883,
          0.12498635798692703
        ],
        [
          0.09157960116863251,
          0.05568380281329155,
          -0.07928002625703812,
          -0.116823710501194,
          -0.16176918148994446,
          0.04011034965515137,
          -0.031923871487379074,
          0.07969631999731064,
          -0.024530475959181786,
          -0.06784560531377792,
          -0.11324618756771088,
          0.05771828815340996,
          0.1898612529039383,
          0.1642722189426422,
          0.1816851943731308,
          -0.09970308095216751,
          0.191480353474617,
          0.08685877174139023,
          0.03777572885155678,
          0.0748865082859993,
          0.1000242680311203,
          0.040154654532670975,
          0.08637616038322449,
          0.1346500962972641,
          0.14059950411319733,
          -0.1782752126455307,
          -0.11345307528972626,
          0.04306316748261452,
          0.12788896262645721,
          -0.11302965879440308,
          0.1817777007818222,
          -0.08409423381090164,
          -0.18888670206069946,
          -0.13560932874679565,
          -0.11199596524238586,
          -0.11572154611349106,
          0.12678413093090057,
          -0.015901464968919754,
          0.07265949249267578,
          0.17778870463371277,
          0.0005998502601869404,
          0.18445909023284912,
          -0.14231173694133759,
          -0.1962660700082779,
          -0.1594432145357132,
          -0.04402248561382294,
          0.06243789568543434,
          0.13905201852321625,
          -0.10136743634939194,
          -0.01818622462451458,
          0.0367484912276268,
          0.06911324709653854,
          0.15728414058685303,
          -0.03369719907641411,
          -0.14726945757865906,
          -0.10562807321548462,
          -0.0010134928161278367,
          -0.14468246698379517,
          0.056631866842508316,
          -0.18516793847084045,
          0.08990154415369034,
          0.1251124143600464,
          -0.08822563290596008,
          -0.04447884112596512,
          0.0076555851846933365,
          0.13802535831928253,
          0.051846399903297424,
          -0.15349864959716797,
          -0.12234795838594437,
          0.18435053527355194,
          0.15115965902805328,
          -0.1740410029888153,
          -0.08788822591304779,
          0.16843661665916443,
          -0.04428812861442566,
          -0.034717123955488205,
          -0.19320982694625854,
          -0.11960618197917938,
          -0.03213091194629669,
          -0.09266257286071777,
          -0.03603251278400421,
          0.07902870327234268,
          0.04272499307990074,
          -0.17985215783119202,
          0.0880071148276329,
          0.027032295241951942,
          -0.015238635241985321,
          -0.06805701553821564,
          0.011614331975579262,
          -0.0246009211987257,
          -0.0550912469625473,
          0.031223352998495102,
          0.13165836036205292,
          0.11499395966529846,
          0.1030847579240799,
          0.10373052954673767,
          -0.16720379889011383,
          -0.13101394474506378,
          0.04731893166899681,
          0.03608123958110809,
          0.06204264238476753,
          -0.059954289346933365,
          -0.1470038890838623,
          -0.18157748878002167,
          0.07337627559900284,
          -0.1529196798801422,
          0.07180096209049225,
          -0.07851852476596832,
          -0.10654603689908981,
          -0.01149147842079401,
          -0.15843631327152252,
          0.07520821690559387,
          -0.09028400480747223,
          0.18688690662384033,
          0.05246487259864807,
          0.09945294260978699,
          -0.07689180225133896,
          0.015973376110196114,
          0.04529924318194389,
          -0.18687275052070618,
          0.05619369447231293,
          0.1872834861278534,
          -0.061037275940179825,
          -0.005985436029732227,
          0.08758523315191269,
          -0.11555995792150497,
          0.17217917740345,
          -0.17337746918201447,
          -0.17701907455921173,
          0.07702651619911194,
          -0.005228081252425909,
          -0.09433327615261078,
          -0.06647142022848129,
          -0.00038243731250986457,
          -0.05034046992659569,
          0.10770845413208008,
          -0.18444322049617767,
          -0.07511112838983536,
          -0.0911342203617096,
          0.021326398476958275,
          -0.05565907806158066,
          0.16226960718631744,
          0.0948391929268837,
          0.14837071299552917,
          0.0038641321007162333,
          0.11376029998064041,
          0.18806646764278412,
          -0.1802496314048767,
          0.17577703297138214,
          -0.0013356191338971257,
          0.012597502209246159,
          -0.14495275914669037,
          0.1028633564710617,
          0.15562033653259277,
          0.14564216136932373,
          -0.10199818760156631,
          0.09095873683691025,
          -0.02310122922062874,
          0.045789726078510284,
          -0.10109106451272964,
          0.18060661852359772,
          -0.06380672752857208,
          0.18550993502140045,
          -0.012226740829646587,
          0.1896810084581375,
          0.17167548835277557,
          -0.17536309361457825,
          0.17290714383125305,
          -0.19802650809288025,
          0.003452179953455925,
          -0.16689571738243103,
          0.026491917669773102,
          0.05029739439487457,
          0.019327716901898384,
          -0.02688572369515896,
          0.058407973498106,
          0.12557484209537506,
          0.011828595772385597,
          -0.18024004995822906,
          0.1445685476064682,
          -0.10948248207569122,
          -0.19209714233875275,
          -0.04879625514149666,
          0.15928398072719574,
          0.19862085580825806,
          0.02838999405503273,
          -0.03886723145842552,
          -0.03972751647233963,
          -0.13394153118133545,
          0.1813357174396515,
          -0.04055608808994293,
          -0.10983987152576447,
          0.040025267750024796,
          0.12320306152105331,
          0.05647753179073334,
          0.033610180020332336,
          0.06337258964776993,
          0.14159052073955536,
          -0.1845826357603073,
          0.0972379818558693,
          -0.01010723877698183
        ],
        [
          0.05933678522706032,
          0.12485136836767197,
          -0.09835223108530045,
          -0.010779687203466892,
          -0.02118462137877941,
          0.14023594558238983,
          -0.007196005899459124,
          0.10233690589666367,
          -0.13175351917743683,
          0.048804182559251785,
          -0.11153531819581985,
          -0.1915867179632187,
          0.1839250773191452,
          0.1999337524175644,
          0.08719787746667862,
          0.14229024946689606,
          0.03418145328760147,
          0.17178745567798615,
          0.015603822655975819,
          -0.04593323916196823,
          -0.0533246174454689,
          0.11145323514938354,
          0.1604548543691635,
          0.008478605188429356,
          -0.05590745434165001,
          0.19437943398952484,
          -0.0693371519446373,
          -0.09499017149209976,
          -0.15123328566551208,
          -0.18041014671325684,
          -0.11780694127082825,
          -0.005314763635396957,
          -0.06434308737516403,
          -0.048445139080286026,
          0.1832600086927414,
          -0.1811126321554184,
          0.016856662929058075,
          0.03617096319794655,
          -0.05808349326252937,
          0.17285294830799103,
          0.1565214842557907,
          -0.1871192455291748,
          0.16788749396800995,
          0.14981816709041595,
          -0.0600915290415287,
          0.04674311727285385,
          0.15856637060642242,
          -0.006958212237805128,
          0.02872336469590664,
          0.13060374557971954,
          0.06320223957300186,
          0.13872912526130676,
          -0.0933990329504013,
          0.1559194177389145,
          -0.1507742702960968,
          -0.1504310518503189,
          -0.020091498270630836,
          0.18240414559841156,
          0.0328974686563015,
          0.1660006195306778,
          0.1453273594379425,
          -0.07899788022041321,
          0.055949728935956955,
          -0.0526987724006176,
          0.055437542498111725,
          -0.019414015114307404,
          -0.07616256177425385,
          0.11899872124195099,
          0.0305826086550951,
          0.0857015997171402,
          0.051697976887226105,
          0.16346868872642517,
          0.0942392647266388,
          0.055599723011255264,
          -0.023903867229819298,
          0.008585868403315544,
          0.04837149381637573,
          0.0732763409614563,
          -0.08065299689769745,
          0.10320395231246948,
          0.03853560611605644,
          -0.0011314770672470331,
          -0.09473120421171188,
          -0.12216679006814957,
          0.19963695108890533,
          0.02307889424264431,
          -0.0118010388687253,
          -0.03259292617440224,
          0.11348039656877518,
          -0.05844559893012047,
          -0.18637435138225555,
          -0.1872481405735016,
          -0.05195344612002373,
          -0.16726788878440857,
          -0.06615482270717621,
          0.14142723381519318,
          0.14969010651111603,
          -0.0720815658569336,
          0.15420563519001007,
          0.17744092643260956,
          0.15284723043441772,
          0.12444937974214554,
          -0.0865815281867981,
          -0.050692226737737656,
          0.049654070287942886,
          -0.05778806656599045,
          0.08783479779958725,
          0.08560571819543839,
          -0.11006718128919601,
          0.07500594109296799,
          -0.016279978677630424,
          0.13504834473133087,
          -0.12375505268573761,
          0.19318225979804993,
          0.09427107125520706,
          -0.16061566770076752,
          0.17104209959506989,
          0.16644521057605743,
          -0.16205944120883942,
          -0.08264374732971191,
          -0.0024193699937313795,
          -0.19109715521335602,
          -0.11613782495260239,
          0.18712666630744934,
          0.05753539130091667,
          -0.10328662395477295,
          0.09851136058568954,
          0.1312451809644699,
          0.10153216868638992,
          -0.1665537804365158,
          -0.06572221219539642,
          0.07917290180921555,
          0.16630692780017853,
          -0.019143959507346153,
          -0.12724436819553375,
          -0.035731036216020584,
          0.010459891520440578,
          -0.08514630794525146,
          -0.1990119367837906,
          0.1666669100522995,
          0.16199707984924316,
          -0.042899638414382935,
          -0.012408877722918987,
          0.018981531262397766,
          -0.11787303537130356,
          -0.09572038054466248,
          -0.07716519385576248,
          -0.06120826303958893,
          0.12032908946275711,
          -0.02261166274547577,
          0.1460791677236557,
          -0.04005474969744682,
          0.13972000777721405,
          0.00005464567948365584,
          -0.07861648499965668,
          0.08428503572940826,
          -0.10292209684848785,
          0.10853122919797897,
          -0.18470139801502228,
          0.08984864503145218,
          -0.12946760654449463,
          0.020461611449718475,
          0.012279851362109184,
          0.0012188530527055264,
          0.02677307277917862,
          0.13322055339813232,
          -0.0698823556303978,
          -0.1343573033809662,
          0.006448436062783003,
          -0.10902713984251022,
          0.028872797265648842,
          -0.050616201013326645,
          -0.07069247215986252,
          -0.01789519004523754,
          0.02379034273326397,
          0.18446364998817444,
          0.09684732556343079,
          -0.17024575173854828,
          0.1715066283941269,
          -0.05402662977576256,
          -0.025435835123062134,
          -0.05924070253968239,
          0.026366883888840675,
          -0.10086599737405777,
          -0.07594124972820282,
          0.03782021999359131,
          -0.046040549874305725,
          -0.051750630140304565,
          0.10972718894481659,
          -0.08580941706895828,
          0.07027197629213333,
          0.010006598196923733,
          0.0031979787163436413,
          0.06994975358247757,
          -0.17469431459903717,
          -0.19041681289672852,
          -0.08495422452688217,
          0.14028458297252655,
          -0.14966650307178497,
          -0.10512032359838486,
          -0.1024477481842041
        ],
        [
          0.15190915763378143,
          0.05627070739865303,
          -0.010357177816331387,
          0.1274053007364273,
          0.12591440975666046,
          -0.041204702109098434,
          -0.11546008288860321,
          0.06666529923677444,
          0.06951159983873367,
          -0.007594244088977575,
          -0.13373097777366638,
          -0.07289348542690277,
          -0.04427427053451538,
          0.07899686694145203,
          0.18506811559200287,
          0.18123078346252441,
          -0.02510450780391693,
          0.12038464844226837,
          -0.1859740912914276,
          -0.18587276339530945,
          0.14749440550804138,
          0.12491659820079803,
          -0.16328822076320648,
          -0.06980154663324356,
          -0.008354727178812027,
          0.1229778304696083,
          -0.06653918325901031,
          -0.13515685498714447,
          -0.03464600071310997,
          0.10661633312702179,
          -0.02797212451696396,
          -0.044139422476291656,
          -0.03307690471410751,
          -0.0870727151632309,
          0.12341482192277908,
          -0.16198354959487915,
          0.0027188854292035103,
          0.10903067141771317,
          -0.019539911299943924,
          0.10558927059173584,
          0.10927145183086395,
          -0.027718421071767807,
          -0.026266328990459442,
          -0.00016228474851232022,
          -0.04300670698285103,
          0.1564614176750183,
          -0.13472090661525726,
          0.03014509007334709,
          0.14604878425598145,
          0.19899675250053406,
          0.02105741575360298,
          -0.015019042417407036,
          0.19893600046634674,
          0.08625086396932602,
          -0.15689873695373535,
          0.06727644056081772,
          -0.19146767258644104,
          0.17958946526050568,
          -0.131210058927536,
          -0.03281250223517418,
          -0.1893983781337738,
          0.0014092993224039674,
          -0.008107885718345642,
          0.1284189522266388,
          -0.08108963072299957,
          0.13177941739559174,
          0.1487068086862564,
          -0.07242905348539352,
          -0.10081619024276733,
          0.15734729170799255,
          0.19817116856575012,
          -0.09008147567510605,
          -0.11583450436592102,
          -0.02412920445203781,
          -0.12095236778259277,
          -0.17437368631362915,
          0.036934319883584976,
          0.002467031590640545,
          -0.07749409228563309,
          -0.163663849234581,
          0.07627483457326889,
          -0.14942145347595215,
          0.006399547215551138,
          -0.009479065425693989,
          0.17699488997459412,
          -0.016465414315462112,
          0.10156948864459991,
          -0.151691734790802,
          -0.0553920604288578,
          -0.18107672035694122,
          -0.1008346825838089,
          -0.028634464368224144,
          -0.12412787228822708,
          -0.09353766590356827,
          0.11986871808767319,
          -0.014300988055765629,
          0.19344694912433624,
          -0.006748392712324858,
          0.1759273260831833,
          -0.18817922472953796,
          -0.06497608870267868,
          0.12361685931682587,
          -0.17424742877483368,
          -0.006108541041612625,
          0.13301654160022736,
          -0.16873972117900848,
          -0.13056538999080658,
          -0.15647201240062714,
          0.11660782992839813,
          -0.1721823662519455,
          -0.02648775652050972,
          -0.04063262417912483,
          0.03440721705555916,
          -0.07171250134706497,
          -0.02514819987118244,
          0.03587177023291588,
          0.10745050013065338,
          0.15899984538555145,
          0.001002331729978323,
          0.11448334902524948,
          0.05608963593840599,
          0.07639683783054352,
          -0.03594731539487839,
          -0.0725630596280098,
          -0.1150677427649498,
          -0.08206620067358017,
          -0.08504928648471832,
          -0.011298767291009426,
          -0.07406260073184967,
          0.14498719573020935,
          0.08601998537778854,
          -0.14614567160606384,
          0.06913060694932938,
          0.009558597579598427,
          -0.198760986328125,
          -0.1070340946316719,
          -0.07210653275251389,
          -0.07346939295530319,
          -0.12498060613870621,
          0.11785963922739029,
          0.054336417466402054,
          -0.15965555608272552,
          0.14691945910453796,
          -0.14711900055408478,
          -0.04979006573557854,
          -0.1056290715932846,
          0.027816258370876312,
          0.15677493810653687,
          -0.13078539073467255,
          0.16142110526561737,
          0.1570107787847519,
          -0.005432272329926491,
          -0.16572511196136475,
          -0.1653875857591629,
          0.0849766880273819,
          0.1006268784403801,
          -0.08592323213815689,
          0.0440511591732502,
          0.0217434111982584,
          -0.017927469685673714,
          0.05232488363981247,
          0.15941062569618225,
          0.011171042919158936,
          -0.16890300810337067,
          0.19792336225509644,
          0.18908603489398956,
          0.12504227459430695,
          -0.1312313824892044,
          0.19510456919670105,
          -0.19032567739486694,
          -0.048360999673604965,
          0.04901178553700447,
          0.1976303607225418,
          0.07609809190034866,
          -0.05540592968463898,
          0.10124871134757996,
          0.18488655984401703,
          0.05577445030212402,
          -0.02950231172144413,
          -0.1836813986301422,
          -0.1852208375930786,
          0.07487782090902328,
          0.10560934245586395,
          -0.06604025512933731,
          0.19675207138061523,
          0.03525092825293541,
          -0.06241840496659279,
          0.11522183567285538,
          0.06669069826602936,
          0.024336937814950943,
          0.04132562503218651,
          -0.15313521027565002,
          0.02147546224296093,
          0.17063763737678528,
          0.024051858112215996,
          -0.12134557962417603,
          -0.19714300334453583,
          -0.16029386222362518,
          0.15323717892169952,
          0.17809826135635376,
          0.13600461184978485
        ],
        [
          -0.060536887496709824,
          -0.0909157395362854,
          0.03842723369598389,
          0.11409235745668411,
          -0.13349011540412903,
          0.0922132357954979,
          0.005042747128754854,
          0.098335862159729,
          -0.07983274012804031,
          -0.15444400906562805,
          -0.15281279385089874,
          0.09175136685371399,
          0.14004363119602203,
          -0.039047423750162125,
          0.09979188442230225,
          -0.035171739757061005,
          -0.12157115340232849,
          0.11899549514055252,
          0.0537615641951561,
          -0.06398051977157593,
          0.00918618869036436,
          0.02247759886085987,
          0.06993692368268967,
          -0.04792831093072891,
          -0.09820321202278137,
          0.07187359035015106,
          -0.09234150499105453,
          0.1329243928194046,
          0.1789575070142746,
          -0.15128234028816223,
          0.17606088519096375,
          -0.052626900374889374,
          -0.1099824458360672,
          -0.19592660665512085,
          -0.06404071301221848,
          -0.06112876534461975,
          0.10358236730098724,
          0.12270673364400864,
          0.0502081997692585,
          -0.007023443002253771,
          -0.11474033445119858,
          0.08204412460327148,
          0.003733514342457056,
          0.006913224700838327,
          0.10807263106107712,
          -0.1282273232936859,
          -0.055162109434604645,
          0.09025099873542786,
          -0.02791316993534565,
          -0.09078796952962875,
          -0.027636390179395676,
          0.20142683386802673,
          -0.05386031046509743,
          0.1401175856590271,
          0.18212227523326874,
          0.12822259962558746,
          0.023146072402596474,
          0.18529489636421204,
          -0.09442699700593948,
          -0.17154832184314728,
          -0.049685414880514145,
          0.16946305334568024,
          -0.0013814251869916916,
          -0.16781851649284363,
          -0.15544556081295013,
          -0.09876174479722977,
          -0.05291337892413139,
          0.009716925211250782,
          0.0036408582236617804,
          -0.10890264809131622,
          0.18549662828445435,
          0.02928033098578453,
          0.07491385191679001,
          -0.19336360692977905,
          -0.08754593878984451,
          0.09440046548843384,
          -0.16957859694957733,
          -0.108151376247406,
          0.15349985659122467,
          0.17758415639400482,
          0.16830193996429443,
          0.11119090765714645,
          0.011449429206550121,
          -0.19761617481708527,
          -0.17968791723251343,
          0.018639547750353813,
          -0.11633691936731339,
          -0.18253569304943085,
          -0.0011868391884490848,
          0.19310380518436432,
          -0.15137682855129242,
          0.008230970241129398,
          -0.09343127906322479,
          0.11028102040290833,
          0.030937353149056435,
          -0.09022361785173416,
          0.10711930692195892,
          0.17306624352931976,
          -0.006982871796935797,
          0.08758267015218735,
          -0.19811514019966125,
          0.11751789599657059,
          -0.08268903195858002,
          0.007500314619392157,
          0.0034156162291765213,
          -0.009489566087722778,
          -0.08091457933187485,
          0.03258931636810303,
          0.14944148063659668,
          -0.09635359048843384,
          -0.06648792326450348,
          -0.12560714781284332,
          -0.15146395564079285,
          0.07461179792881012,
          0.19643010199069977,
          -0.13777318596839905,
          -0.176802858710289,
          -0.032764777541160583,
          0.12478633224964142,
          0.13908886909484863,
          -0.001135377329774201,
          -0.024850141257047653,
          -0.17926296591758728,
          0.032458677887916565,
          0.02055170014500618,
          0.10223924368619919,
          -0.119362972676754,
          -0.029442882165312767,
          -0.1380503922700882,
          -0.13041841983795166,
          0.05546843260526657,
          0.062078807502985,
          -0.01281009055674076,
          -0.07493211328983307,
          0.018992505967617035,
          -0.013163208030164242,
          0.08201801031827927,
          -0.014944221824407578,
          0.10099496692419052,
          -0.036766283214092255,
          -0.11217652261257172,
          -0.04617881774902344,
          0.005727712996304035,
          -0.12492156773805618,
          0.14140811562538147,
          0.0026383637450635433,
          0.18760666251182556,
          0.1839659959077835,
          0.11005041003227234,
          -0.07662398368120193,
          -0.11858891695737839,
          -0.17185333371162415,
          0.04781460389494896,
          -0.1428021937608719,
          -0.029675908386707306,
          -0.025439253076910973,
          0.07135181874036789,
          0.020421145483851433,
          -0.054342545568943024,
          0.2006906270980835,
          0.1470634639263153,
          0.11861366778612137,
          0.08783987164497375,
          -0.012728500179946423,
          0.0704043060541153,
          -0.12063274532556534,
          -0.10701856017112732,
          -0.009283303283154964,
          0.10656724125146866,
          0.19715972244739532,
          0.026003200560808182,
          -0.04571574553847313,
          0.17922404408454895,
          -0.007855594158172607,
          0.03392433375120163,
          0.06907109171152115,
          -0.14211487770080566,
          0.18119190633296967,
          0.03881212696433067,
          -0.14142253994941711,
          -0.08681832253932953,
          -0.03323310613632202,
          0.14374494552612305,
          0.01739218458533287,
          -0.09964378923177719,
          -0.11981429904699326,
          -0.10707563161849976,
          0.020298266783356667,
          -0.11003983020782471,
          -0.07493710517883301,
          0.07401440292596817,
          -0.03805386275053024,
          0.11791757494211197,
          -0.005798116326332092,
          -0.016203109174966812,
          0.10458428412675858,
          0.11700958758592606,
          0.15110674500465393,
          -0.013946224935352802,
          0.1240215003490448,
          0.1397353857755661
        ],
        [
          0.06437496840953827,
          0.1749318540096283,
          0.09292840957641602,
          0.023449821397662163,
          -0.16841548681259155,
          0.13817571103572845,
          0.06825749576091766,
          0.07823844254016876,
          0.027758605778217316,
          0.03052469715476036,
          0.12315290421247482,
          0.1845259666442871,
          -0.10907154530286789,
          -0.07159195095300674,
          -0.07595209032297134,
          -0.1795414835214615,
          -0.11482155323028564,
          -0.11958067119121552,
          -0.11092504858970642,
          -0.03739809989929199,
          -0.06212487071752548,
          -0.10895328968763351,
          0.026436923071742058,
          0.15919174253940582,
          -0.18374669551849365,
          -0.1351078599691391,
          0.14858654141426086,
          0.19136200845241547,
          0.0055327583104372025,
          -0.15760846436023712,
          0.07409089058637619,
          -0.09097779542207718,
          0.16348512470722198,
          0.12540578842163086,
          0.06697096675634384,
          -0.10088321566581726,
          0.018088525161147118,
          -0.1577228158712387,
          0.11284583061933517,
          -0.15374848246574402,
          -0.06538641452789307,
          0.0026506369467824697,
          0.11922433227300644,
          -0.04349672421813011,
          -0.09768663346767426,
          0.13980107009410858,
          -0.05672150477766991,
          0.07131416350603104,
          0.19070138037204742,
          0.09030776470899582,
          0.14289286732673645,
          0.17121319472789764,
          0.1886807233095169,
          -0.14643262326717377,
          0.11944081634283066,
          0.1672278642654419,
          0.15365739166736603,
          0.17226964235305786,
          -0.008256074041128159,
          -0.10781875997781754,
          0.10772655159235,
          -0.10552667081356049,
          0.04810695722699165,
          -0.04696334898471832,
          -0.034000568091869354,
          0.08865227550268173,
          -0.16041766107082367,
          -0.021371087059378624,
          0.06303559988737106,
          -0.11130141466856003,
          -0.15368029475212097,
          0.0032223400194197893,
          -0.07154259830713272,
          0.1253943145275116,
          0.09062882512807846,
          -0.18094535171985626,
          0.07252851873636246,
          -0.18361607193946838,
          -0.06714647263288498,
          0.14775390923023224,
          0.17252101004123688,
          -0.03930608555674553,
          0.030222509056329727,
          0.18336044251918793,
          -0.15082234144210815,
          -0.06233707815408707,
          -0.17210344970226288,
          -0.18015068769454956,
          -0.0009586342494003475,
          -0.18643203377723694,
          -0.06053644418716431,
          0.02187342569231987,
          -0.011554613709449768,
          -0.07397419959306717,
          -0.19385774433612823,
          -0.18711470067501068,
          -0.17391034960746765,
          0.052283406257629395,
          0.051222898066043854,
          0.12728524208068848,
          -0.06022203341126442,
          0.017572671175003052,
          -0.05032253637909889,
          -0.19664320349693298,
          -0.07775826752185822,
          -0.13222773373126984,
          -0.18752063810825348,
          0.12079410254955292,
          0.042062729597091675,
          0.04693055525422096,
          0.06749197095632553,
          0.03401298448443413,
          0.18638618290424347,
          -0.058719366788864136,
          -0.1251247674226761,
          0.19271819293498993,
          -0.0025443476624786854,
          0.17492079734802246,
          -0.033513765782117844,
          0.033291637897491455,
          -0.02593671903014183,
          -0.009947752580046654,
          -0.03896230831742287,
          0.10944229364395142,
          0.10000288486480713,
          0.16320551931858063,
          -0.19148075580596924,
          -0.17797236144542694,
          0.0016819722950458527,
          -0.1296779066324234,
          0.06928995996713638,
          -0.09519323706626892,
          -0.1909209042787552,
          -0.12347117066383362,
          0.05922509729862213,
          0.058249544352293015,
          -0.07644739747047424,
          0.15166334807872772,
          -0.14782114326953888,
          0.1787191778421402,
          -0.016368359327316284,
          -0.037449270486831665,
          -0.03547818958759308,
          0.060580044984817505,
          -0.13316033780574799,
          0.17554889619350433,
          0.08424758166074753,
          -0.06097899377346039,
          0.16635996103286743,
          0.1293615698814392,
          0.004091321956366301,
          -0.01794143207371235,
          -0.11830655485391617,
          -0.08608119189739227,
          0.09974459558725357,
          -0.16009026765823364,
          0.01174417044967413,
          -0.06836073845624924,
          0.1540418118238449,
          0.07644499838352203,
          -0.13019326329231262,
          -0.04978775978088379,
          0.07844944298267365,
          0.05998646467924118,
          0.1835123896598816,
          0.10728418827056885,
          -0.05229071527719498,
          -0.19359996914863586,
          0.09703216701745987,
          -0.08319314569234848,
          0.12278787791728973,
          0.020360790193080902,
          -0.1046731099486351,
          -0.031790513545274734,
          0.17185017466545105,
          -0.1965026706457138,
          -0.050393182784318924,
          0.11793485283851624,
          -0.00669031823053956,
          -0.09185490757226944,
          -0.04925559088587761,
          0.06509993225336075,
          0.02290255017578602,
          0.03611672297120094,
          0.12396793067455292,
          -0.040304701775312424,
          -0.13300859928131104,
          0.10458695888519287,
          0.11374115943908691,
          -0.09144266694784164,
          0.1604512482881546,
          -0.0592498742043972,
          -0.16328167915344238,
          -0.17555250227451324,
          -0.08418972045183182,
          0.16920648515224457,
          -0.18542775511741638,
          0.08999470621347427,
          -0.08792606741189957,
          -0.20070227980613708,
          0.054587047547101974
        ],
        [
          -0.13127633929252625,
          -0.1747657060623169,
          -0.11798018962144852,
          -0.023368801921606064,
          0.16332529485225677,
          -0.14211665093898773,
          0.17662283778190613,
          -0.176665797829628,
          -0.1850757896900177,
          0.039281606674194336,
          -0.034078359603881836,
          -0.17523713409900665,
          0.1402786523103714,
          0.1474146544933319,
          0.014533919282257557,
          -0.1637999713420868,
          -0.023307394236326218,
          -0.18403083086013794,
          0.04523033648729324,
          0.20002636313438416,
          -0.15831220149993896,
          -0.12757159769535065,
          -0.18847531080245972,
          0.008129171095788479,
          -0.09706010669469833,
          0.09829311072826385,
          0.11452478915452957,
          0.19278836250305176,
          0.07904654741287231,
          0.08656245470046997,
          -0.11519335955381393,
          -0.16471345722675323,
          0.11069946736097336,
          0.04147113487124443,
          -0.05666055530309677,
          0.0035842100623995066,
          0.05053453892469406,
          -0.027583181858062744,
          -0.18052710592746735,
          0.1276158094406128,
          0.07596747577190399,
          0.1857631951570511,
          0.1577416956424713,
          0.11824775487184525,
          0.11546012759208679,
          0.15763920545578003,
          -0.056007497012615204,
          -0.12652437388896942,
          -0.1867785006761551,
          0.0214876439422369,
          0.1378861665725708,
          -0.1465449035167694,
          -0.18877504765987396,
          0.10740243643522263,
          -0.09415481239557266,
          -0.1836974024772644,
          -0.1563371866941452,
          0.17322804033756256,
          0.11486684530973434,
          0.1429387480020523,
          -0.09793151170015335,
          0.060476288199424744,
          -0.005829057656228542,
          -0.15841631591320038,
          0.016561517491936684,
          -0.12631870806217194,
          0.1600651741027832,
          0.09371909499168396,
          0.08119643479585648,
          0.12827058136463165,
          0.10056164860725403,
          0.12430620193481445,
          -0.07463753968477249,
          -0.08121609687805176,
          -0.13551481068134308,
          -0.19150778651237488,
          -0.07535338401794434,
          0.035160131752491,
          -0.007508284877985716,
          -0.17731787264347076,
          0.0746520608663559,
          -0.14888803660869598,
          0.05584484338760376,
          -0.058818455785512924,
          -0.012323801405727863,
          -0.008917617611587048,
          0.11979350447654724,
          -0.09773619472980499,
          0.19288741052150726,
          -0.1060776486992836,
          0.19361662864685059,
          0.07916003465652466,
          -0.026021089404821396,
          0.20071618258953094,
          -0.010516551323235035,
          0.11390753835439682,
          -0.05861364305019379,
          -0.1876373291015625,
          -0.007117909379303455,
          -0.16625411808490753,
          0.16463714838027954,
          -0.08399214595556259,
          0.050944872200489044,
          -0.15152914822101593,
          0.08660164475440979,
          -0.03740411251783371,
          0.13275420665740967,
          -0.08538321405649185,
          -0.16710001230239868,
          0.006042452994734049,
          0.0745338574051857,
          0.14520074427127838,
          -0.16318637132644653,
          -0.09127745032310486,
          0.19193822145462036,
          -0.0632229894399643,
          0.16838140785694122,
          -0.06770037859678268,
          -0.019800545647740364,
          0.20366497337818146,
          -0.073065385222435,
          0.163719043135643,
          0.19360008835792542,
          -0.06954475492238998,
          0.14463470876216888,
          -0.19064827263355255,
          -0.07208199799060822,
          -0.05842608958482742,
          -0.11888064444065094,
          0.15903088450431824,
          -0.19610010087490082,
          -0.15502196550369263,
          -0.014334606938064098,
          0.16231279075145721,
          0.14212174713611603,
          -0.00000512440192323993,
          -0.18759170174598694,
          0.07412903010845184,
          0.08375967293977737,
          -0.1827613115310669,
          0.1200048178434372,
          -0.14140796661376953,
          0.15301375091075897,
          -0.010259592905640602,
          -0.18355704843997955,
          0.02102169394493103,
          -0.04809856787323952,
          0.1668534129858017,
          -0.05894856154918671,
          0.0831243172287941,
          0.03121211938560009,
          -0.15186987817287445,
          -0.050059426575899124,
          -0.15914079546928406,
          -0.08866485953330994,
          0.13786077499389648,
          -0.06618869304656982,
          0.19835665822029114,
          0.040780093520879745,
          0.057592589408159256,
          0.004006030037999153,
          -0.0501273013651371,
          -0.04005400091409683,
          -0.169106125831604,
          0.07778194546699524,
          0.06129405274987221,
          0.07792679965496063,
          0.12674959003925323,
          -0.1771295815706253,
          -0.16478331387043,
          -0.19563502073287964,
          -0.06451793015003204,
          -0.1089540347456932,
          0.18796753883361816,
          -0.17556849122047424,
          0.19865219295024872,
          0.04873348027467728,
          0.15156187117099762,
          0.05672662705183029,
          -0.0818428322672844,
          -0.05478040128946304,
          -0.05731409788131714,
          -0.16881771385669708,
          -0.011865696869790554,
          -0.0034275916405022144,
          -0.0213208869099617,
          0.15858392417430878,
          0.04452062025666237,
          -0.08807394653558731,
          0.13549961149692535,
          0.0885326936841011,
          0.05490056052803993,
          -0.1453988403081894,
          0.053290706127882004,
          0.16264380514621735,
          0.04680135101079941,
          -0.025153636932373047,
          0.12499091774225235,
          0.10836581885814667,
          -0.09098954498767853,
          -0.01112405676394701
        ]
      ],
      "biases": [
        0.06267135590314865,
        0.19533075392246246,
        0.054668545722961426,
        0.02486780844628811,
        0.14650529623031616,
        -0.06414997577667236,
        -0.16817109286785126,
        0.09357684850692749,
        -0.07342351973056793,
        0.07060375064611435
      ]
    },
    {
      "weights": [
        [
          -0.14933209121227264,
          -0.18056438863277435,
          0.012242930941283703,
          -0.09467125684022903,
          -0.12712609767913818,
          0.13565073907375336,
          0.009724214673042297,
          -0.1050463393330574,
          -0.0635109692811966,
          0.06021970883011818
        ],
        [
          0.14691351354122162,
          0.22655943036079407,
          -0.007017116062343121,
          0.06779597699642181,
          0.22988846898078918,
          0.07872786372900009,
          0.2417014092206955,
          0.18715564906597137,
          -0.0264348816126585,
          0.14867369830608368
        ],
        [
          0.2353031039237976,
          0.13611775636672974,
          -0.14678843319416046,
          -0.029855525121092796,
          -0.04643476754426956,
          0.008264879696071148,
          0.19832396507263184,
          0.2663479745388031,
          0.0030711842700839043,
          -0.13335570693016052
        ],
        [
          0.028286797925829887,
          0.2256859987974167,
          -0.014758361503481865,
          -0.16785287857055664,
          -0.13418735563755035,
          0.13146010041236877,
          -0.15585151314735413,
          0.22192083299160004,
          -0.1523095965385437,
          0.09191873669624329
        ],
        [
          -0.013329222798347473,
          0.047280412167310715,
          0.11604424566030502,
          -0.12226445227861404,
          -0.03292141109704971,
          -0.09688727557659149,
          -0.022504588589072227,
          0.24228042364120483,
          0.14507655799388885,
          0.24213069677352905
        ],
        [
          0.08932170271873474,
          -0.09330213814973831,
          0.17557838559150696,
          -0.1447666883468628,
          -0.16263441741466522,
          0.0932987779378891,
          -0.1303517073392868,
          0.14836858212947845,
          -0.01538330689072609,
          0.11071140319108963
        ],
        [
          -0.15853609144687653,
          0.12581203877925873,
          0.03393835201859474,
          0.16781622171401978,
          -0.08996808528900146,
          -0.0884358286857605,
          0.13918326795101166,
          -0.10006103664636612,
          -0.10436979681253433,
          0.06909868121147156
        ],
        [
          0.025974027812480927,
          -0.015484530478715897,
          -0.019779233261942863,
          -0.13947376608848572,
          0.06559967249631882,
          0.06846875697374344,
          -0.1091248020529747,
          0.15939445793628693,
          0.02014506235718727,
          0.03796563670039177
        ],
        [
          -0.02985871024429798,
          0.04150136187672615,
          -0.07586953043937683,
          0.1744164377450943,
          -0.07508588582277298,
          -0.08400385826826096,
          -0.14105407893657684,
          -0.05853681638836861,
          -0.17008419334888458,
          -0.14999769628047943
        ],
        [
          0.0388166643679142,
          0.10408046841621399,
          0.198357492685318,
          0.07263132184743881,
          -0.07552409917116165,
          0.05902848020195961,
          0.048141539096832275,
          -0.09955678880214691,
          0.13962988555431366,
          0.11152956634759903
        ]
      ],
      "biases": [
        0.09199397265911102,
        -0.06362154334783554,
        0.06196042150259018,
        0.03460013493895531,
        0.22905893623828888,
        -0.026311013847589493,
        -0.06375068426132202,
        0.29264044761657715,
        0.16882231831550598,
        -0.1299387365579605
      ]
    },
    {
      "weights": [
        [
          -0.32474246621131897,
          -0.7738268375396729,
          -0.7252077460289001,
          -0.5102542638778687,
          -0.7594936490058899,
          -0.47073957324028015,
          -0.4444350600242615,
          -0.7733542919158936,
          -0.3300805687904358,
          -0.4093673527240753
        ]
      ],
      "biases": [
        -0.923541784286499
      ]
    }
  ],
  "inputLookup": {
    "(0,0)": 0,
    "(0,1)": 1,
    "(0,2)": 2,
    "(0,3)": 3,
    "(0,4)": 4,
    "(0,5)": 5,
    "(0,6)": 6,
    "(0,7)": 7,
    "(0,8)": 8,
    "(0,9)": 9,
    "(0,10)": 10,
    "(0,11)": 11,
    "(0,12)": 12,
    "(0,13)": 13,
    "(0,14)": 14,
    "(0,15)": 15,
    "(0,16)": 16,
    "(0,17)": 17,
    "(0,18)": 18,
    "(0,19)": 19,
    "(1,0)": 20,
    "(1,1)": 21,
    "(1,2)": 22,
    "(1,3)": 23,
    "(1,4)": 24,
    "(1,5)": 25,
    "(1,6)": 26,
    "(1,7)": 27,
    "(1,8)": 28,
    "(1,9)": 29,
    "(1,10)": 30,
    "(1,11)": 31,
    "(1,12)": 32,
    "(1,13)": 33,
    "(1,14)": 34,
    "(1,15)": 35,
    "(1,16)": 36,
    "(1,17)": 37,
    "(1,18)": 38,
    "(1,19)": 39,
    "(2,0)": 40,
    "(2,1)": 41,
    "(2,2)": 42,
    "(2,3)": 43,
    "(2,4)": 44,
    "(2,5)": 45,
    "(2,6)": 46,
    "(2,7)": 47,
    "(2,8)": 48,
    "(2,9)": 49,
    "(2,10)": 50,
    "(2,11)": 51,
    "(2,12)": 52,
    "(2,13)": 53,
    "(2,14)": 54,
    "(2,15)": 55,
    "(2,16)": 56,
    "(2,17)": 57,
    "(2,18)": 58,
    "(2,19)": 59,
    "(3,0)": 60,
    "(3,1)": 61,
    "(3,2)": 62,
    "(3,3)": 63,
    "(3,4)": 64,
    "(3,5)": 65,
    "(3,6)": 66,
    "(3,7)": 67,
    "(3,8)": 68,
    "(3,9)": 69,
    "(3,10)": 70,
    "(3,11)": 71,
    "(3,12)": 72,
    "(3,13)": 73,
    "(3,14)": 74,
    "(3,15)": 75,
    "(3,16)": 76,
    "(3,17)": 77,
    "(3,18)": 78,
    "(3,19)": 79,
    "(4,0)": 80,
    "(4,1)": 81,
    "(4,2)": 82,
    "(4,3)": 83,
    "(4,4)": 84,
    "(4,5)": 85,
    "(4,6)": 86,
    "(4,7)": 87,
    "(4,8)": 88,
    "(4,9)": 89,
    "(4,10)": 90,
    "(4,11)": 91,
    "(4,12)": 92,
    "(4,13)": 93,
    "(4,14)": 94,
    "(4,15)": 95,
    "(4,16)": 96,
    "(4,17)": 97,
    "(4,18)": 98,
    "(4,19)": 99,
    "(5,0)": 100,
    "(5,1)": 101,
    "(5,2)": 102,
    "(5,3)": 103,
    "(5,4)": 104,
    "(5,5)": 105,
    "(5,6)": 106,
    "(5,7)": 107,
    "(5,8)": 108,
    "(5,9)": 109,
    "(5,10)": 110,
    "(5,11)": 111,
    "(5,12)": 112,
    "(5,13)": 113,
    "(5,14)": 114,
    "(5,15)": 115,
    "(5,16)": 116,
    "(5,17)": 117,
    "(5,18)": 118,
    "(5,19)": 119,
    "(6,0)": 120,
    "(6,1)": 121,
    "(6,2)": 122,
    "(6,3)": 123,
    "(6,4)": 124,
    "(6,5)": 125,
    "(6,6)": 126,
    "(6,7)": 127,
    "(6,8)": 128,
    "(6,9)": 129,
    "(6,10)": 130,
    "(6,11)": 131,
    "(6,12)": 132,
    "(6,13)": 133,
    "(6,14)": 134,
    "(6,15)": 135,
    "(6,16)": 136,
    "(6,17)": 137,
    "(6,18)": 138,
    "(6,19)": 139,
    "(7,0)": 140,
    "(7,1)": 141,
    "(7,2)": 142,
    "(7,3)": 143,
    "(7,4)": 144,
    "(7,5)": 145,
    "(7,6)": 146,
    "(7,7)": 147,
    "(7,8)": 148,
    "(7,9)": 149,
    "(7,10)": 150,
    "(7,11)": 151,
    "(7,12)": 152,
    "(7,13)": 153,
    "(7,14)": 154,
    "(7,15)": 155,
    "(7,16)": 156,
    "(7,17)": 157,
    "(7,18)": 158,
    "(7,19)": 159,
    "(8,0)": 160,
    "(8,1)": 161,
    "(8,2)": 162,
    "(8,3)": 163,
    "(8,4)": 164,
    "(8,5)": 165,
    "(8,6)": 166,
    "(8,7)": 167,
    "(8,8)": 168,
    "(8,9)": 169,
    "(8,10)": 170,
    "(8,11)": 171,
    "(8,12)": 172,
    "(8,13)": 173,
    "(8,14)": 174,
    "(8,15)": 175,
    "(8,16)": 176,
    "(8,17)": 177,
    "(8,18)": 178,
    "(8,19)": 179,
    "(9,0)": 180,
    "(9,1)": 181,
    "(9,2)": 182,
    "(9,3)": 183,
    "(9,4)": 184,
    "(9,5)": 185,
    "(9,6)": 186,
    "(9,7)": 187,
    "(9,8)": 188,
    "(9,9)": 189,
    "(9,10)": 190,
    "(9,11)": 191,
    "(9,12)": 192,
    "(9,13)": 193,
    "(9,14)": 194,
    "(9,15)": 195,
    "(9,16)": 196,
    "(9,17)": 197,
    "(9,18)": 198,
    "(9,19)": 199,
    "mino": 200
  },
  "inputLookupLength": 201,
  "outputLookup": {
    "keyCode": 0
  },
  "outputLookupLength": 1,
  "options": {
    "inputSize": 0,
    "outputSize": 0,
    "binaryThresh": 0.5,
    "hiddenLayers": [
      10,
      10
    ],
    "activation": "sigmoid"
  },
  "trainOpts": {
    "activation": "sigmoid",
    "iterations": 20000,
    "errorThresh": 0.005,
    "log": true,
    "logPeriod": 100,
    "leakyReluAlpha": 0.01,
    "learningRate": 0.3,
    "momentum": 0.1,
    "callbackPeriod": 10,
    "timeout": "Infinity",
    "beta1": 0.9,
    "beta2": 0.999,
    "epsilon": 1e-8
  }
}